digraph Tree {
node [shape=box, style="filled, rounded", color="black", fontname="helvetica"] ;
edge [fontname="helvetica"] ;
0 [label="smoker_no <= -0.705\nsquared_error = 133865527.642\nsamples = 802\nvalue = 13050.2", fillcolor="#f9e0cf"] ;
1 [label="bmi <= -0.093\nsquared_error = 122339397.362\nsamples = 170\nvalue = 30300.802", fillcolor="#efb184"] ;
0 -> 1 [labeldistance=2.5, labelangle=45, headlabel="True"] ;
2 [label="age <= 0.13\nsquared_error = 25567997.648\nsamples = 94\nvalue = 21463.667", fillcolor="#f4c9aa"] ;
1 -> 2 ;
3 [label="bmi <= -1.047\nsquared_error = 10389570.783\nsamples = 54\nvalue = 18377.349", fillcolor="#f6d2b8"] ;
2 -> 3 ;
4 [label="region_northeast <= 0.635\nsquared_error = 3525217.682\nsamples = 17\nvalue = 16297.916", fillcolor="#f7d7c1"] ;
3 -> 4 ;
5 [label="squared_error = 2945883.769\nsamples = 9\nvalue = 17335.077", fillcolor="#f6d4bc"] ;
4 -> 5 ;
6 [label="squared_error = 1605365.157\nsamples = 8\nvalue = 15131.11", fillcolor="#f7dbc6"] ;
4 -> 6 ;
7 [label="age <= -1.407\nsquared_error = 10643922.928\nsamples = 37\nvalue = 19332.764", fillcolor="#f5cfb4"] ;
3 -> 7 ;
8 [label="squared_error = 390210.981\nsamples = 7\nvalue = 16847.918", fillcolor="#f7d6be"] ;
7 -> 8 ;
9 [label="squared_error = 11259582.79\nsamples = 30\nvalue = 19912.562", fillcolor="#f5cdb1"] ;
7 -> 9 ;
10 [label="bmi <= -0.764\nsquared_error = 15839680.79\nsamples = 40\nvalue = 25630.196", fillcolor="#f2be98"] ;
2 -> 10 ;
11 [label="age <= 0.344\nsquared_error = 10605595.748\nsamples = 21\nvalue = 23959.706", fillcolor="#f2c2a0"] ;
10 -> 11 ;
12 [label="squared_error = 1441623.868\nsamples = 4\nvalue = 20468.17", fillcolor="#f4ccaf"] ;
11 -> 12 ;
13 [label="squared_error = 9218472.534\nsamples = 17\nvalue = 24781.243", fillcolor="#f2c09c"] ;
11 -> 13 ;
14 [label="bmi <= -0.727\nsquared_error = 15131506.412\nsamples = 19\nvalue = 27476.527", fillcolor="#f0b990"] ;
10 -> 14 ;
15 [label="squared_error = 0.0\nsamples = 1\nvalue = 38245.593", fillcolor="#ea9b62"] ;
14 -> 15 ;
16 [label="squared_error = 9171271.836\nsamples = 18\nvalue = 26878.245", fillcolor="#f1ba93"] ;
14 -> 16 ;
17 [label="age <= -0.835\nsquared_error = 25971242.371\nsamples = 76\nvalue = 41230.942", fillcolor="#e99355"] ;
1 -> 17 ;
18 [label="bmi <= 1.61\nsquared_error = 3669282.01\nsamples = 23\nvalue = 36109.405", fillcolor="#eca16b"] ;
17 -> 18 ;
19 [label="bmi <= 0.261\nsquared_error = 1449386.277\nsamples = 20\nvalue = 35513.88", fillcolor="#eca36e"] ;
18 -> 19 ;
20 [label="squared_error = 441670.576\nsamples = 7\nvalue = 34333.394", fillcolor="#eda673"] ;
19 -> 20 ;
21 [label="squared_error = 837583.486\nsamples = 13\nvalue = 36149.527", fillcolor="#eca16b"] ;
19 -> 21 ;
22 [label="sex_female <= 0.045\nsquared_error = 342061.795\nsamples = 3\nvalue = 40079.568", fillcolor="#e9965a"] ;
18 -> 22 ;
23 [label="squared_error = 3079.612\nsamples = 2\nvalue = 39667.252", fillcolor="#ea975c"] ;
22 -> 23 ;
24 [label="squared_error = 0.0\nsamples = 1\nvalue = 40904.2", fillcolor="#e99457"] ;
22 -> 24 ;
25 [label="age <= 0.808\nsquared_error = 19326810.909\nsamples = 53\nvalue = 43453.496", fillcolor="#e78d4c"] ;
17 -> 25 ;
26 [label="bmi <= 1.239\nsquared_error = 19815498.475\nsamples = 33\nvalue = 41589.818", fillcolor="#e89254"] ;
25 -> 26 ;
27 [label="squared_error = 9418608.157\nsamples = 27\nvalue = 40465.666", fillcolor="#e99558"] ;
26 -> 27 ;
28 [label="squared_error = 35324475.812\nsamples = 6\nvalue = 46648.503", fillcolor="#e6843e"] ;
26 -> 28 ;
29 [label="bmi <= 0.817\nsquared_error = 3333485.172\nsamples = 20\nvalue = 46528.566", fillcolor="#e6843e"] ;
25 -> 29 ;
30 [label="squared_error = 2555385.974\nsamples = 10\nvalue = 45287.955", fillcolor="#e68844"] ;
29 -> 30 ;
31 [label="squared_error = 1033353.51\nsamples = 10\nvalue = 47769.176", fillcolor="#e58139"] ;
29 -> 31 ;
32 [label="age <= 0.237\nsquared_error = 35388387.231\nsamples = 632\nvalue = 8410.007", fillcolor="#fbede3"] ;
0 -> 32 [labeldistance=2.5, labelangle=-45, headlabel="False"] ;
33 [label="age <= -1.192\nsquared_error = 20427019.115\nsamples = 359\nvalue = 5387.71", fillcolor="#fdf5f0"] ;
32 -> 33 ;
34 [label="children <= -0.493\nsquared_error = 20720039.46\nsamples = 101\nvalue = 3323.393", fillcolor="#fefbf9"] ;
33 -> 34 ;
35 [label="bmi <= -0.095\nsquared_error = 9616796.105\nsamples = 70\nvalue = 2468.868", fillcolor="#fffdfc"] ;
34 -> 35 ;
36 [label="squared_error = 138099.416\nsamples = 33\nvalue = 1844.047", fillcolor="#ffffff"] ;
35 -> 36 ;
37 [label="squared_error = 17412020.353\nsamples = 37\nvalue = 3026.141", fillcolor="#fefcfa"] ;
35 -> 37 ;
38 [label="bmi <= -0.689\nsquared_error = 40419764.818\nsamples = 31\nvalue = 5252.965", fillcolor="#fdf6f0"] ;
34 -> 38 ;
39 [label="squared_error = 6543216.007\nsamples = 13\nvalue = 3271.46", fillcolor="#fefbf9"] ;
38 -> 39 ;
40 [label="squared_error = 60002447.234\nsamples = 18\nvalue = 6684.052", fillcolor="#fcf2ea"] ;
38 -> 40 ;
41 [label="age <= -0.192\nsquared_error = 17991021.188\nsamples = 258\nvalue = 6195.834", fillcolor="#fdf3ec"] ;
33 -> 41 ;
42 [label="children <= 2.027\nsquared_error = 17745314.057\nsamples = 178\nvalue = 5502.588", fillcolor="#fdf5ef"] ;
41 -> 42 ;
43 [label="squared_error = 16646679.073\nsamples = 169\nvalue = 5325.624", fillcolor="#fdf5f0"] ;
42 -> 43 ;
44 [label="squared_error = 26744878.639\nsamples = 9\nvalue = 8825.585", fillcolor="#fbece1"] ;
42 -> 44 ;
45 [label="bmi <= 1.814\nsquared_error = 15089190.715\nsamples = 80\nvalue = 7738.305", fillcolor="#fcefe6"] ;
41 -> 45 ;
46 [label="squared_error = 10036492.544\nsamples = 76\nvalue = 7540.146", fillcolor="#fcefe6"] ;
45 -> 46 ;
47 [label="squared_error = 96168943.303\nsamples = 4\nvalue = 11503.333", fillcolor="#fae4d5"] ;
45 -> 47 ;
48 [label="age <= 1.38\nsquared_error = 27255452.685\nsamples = 273\nvalue = 12384.383", fillcolor="#f9e2d2"] ;
32 -> 48 ;
49 [label="age <= 0.523\nsquared_error = 23834375.733\nsamples = 209\nvalue = 11446.387", fillcolor="#fae5d6"] ;
48 -> 49 ;
50 [label="region_northeast <= 0.635\nsquared_error = 17828530.197\nsamples = 45\nvalue = 9171.204", fillcolor="#fbebdf"] ;
49 -> 50 ;
51 [label="squared_error = 4528182.989\nsamples = 32\nvalue = 8442.867", fillcolor="#fbede3"] ;
50 -> 51 ;
52 [label="squared_error = 46047815.539\nsamples = 13\nvalue = 10964.036", fillcolor="#fae6d8"] ;
50 -> 52 ;
53 [label="children <= 0.347\nsquared_error = 23672217.386\nsamples = 164\nvalue = 12070.674", fillcolor="#f9e3d3"] ;
49 -> 53 ;
54 [label="squared_error = 20944989.328\nsamples = 119\nvalue = 11639.631", fillcolor="#f9e4d5"] ;
53 -> 54 ;
55 [label="squared_error = 29093582.788\nsamples = 45\nvalue = 13210.545", fillcolor="#f9e0ce"] ;
53 -> 55 ;
56 [label="children <= -0.493\nsquared_error = 26171345.579\nsamples = 64\nvalue = 15447.526", fillcolor="#f7dac4"] ;
48 -> 56 ;
57 [label="bmi <= -0.737\nsquared_error = 10333223.577\nsamples = 42\nvalue = 14165.345", fillcolor="#f8ddca"] ;
56 -> 57 ;
58 [label="squared_error = 30534031.087\nsamples = 10\nvalue = 15981.26", fillcolor="#f7d8c2"] ;
57 -> 58 ;
59 [label="squared_error = 2667962.202\nsamples = 32\nvalue = 13597.872", fillcolor="#f8dfcc"] ;
57 -> 59 ;
60 [label="bmi <= 0.561\nsquared_error = 47277522.585\nsamples = 22\nvalue = 17895.324", fillcolor="#f6d3ba"] ;
56 -> 60 ;
61 [label="squared_error = 26266456.776\nsamples = 14\nvalue = 16327.997", fillcolor="#f7d7c1"] ;
60 -> 61 ;
62 [label="squared_error = 72224908.89\nsamples = 8\nvalue = 20638.147", fillcolor="#f4cbae"] ;
60 -> 62 ;
}